\data\
ngram 1=237
ngram 2=477

\1-grams:
-2.6896684	<unk>	0
0	<s>	-0.16855828
-1.0639576	</s>	0
-2.5195935	Lorem	-0.029898744
-2.3424401	ipsum	-0.029898744
-2.5195935	dolor	-0.029898744
-1.8883673	sit	-0.1965363
-2.5195935	amet,	-0.029898744
-2.5195935	consectetur	-0.029898744
-2.5195935	adipiscing	-0.029898744
-2.5195935	elit.	-0.029898744
-2.4543252	Sed	-0.029898744
-2.4543252	scelerisque	-0.029898744
-2.5195935	nisi	-0.029898744
-2.4543252	ac	-0.67288005
-2.4543252	enim	-0.029898744
-2.4543252	viverra	-0.029898744
-2.5195935	dictum.	-0.029898744
-2.5195935	Praesent	-0.029898744
-2.5195935	volutpat	-0.029898744
-2.4543252	pretium	-0.029898744
-2.3424401	tellus	-0.029898744
-2.0585809	eget	-0.02989877
-2.5195935	finibus.	-0.029898744
-2.5195935	Vestibulum	-0.029898744
-2.5195935	imperdiet	-0.029898744
-2.5195935	magna	-0.029898744
-2.5195935	dui,	-0.029898744
-1.7162392	et	-0.02989877
-2.4543252	bibendum	-0.029898744
-2.4543252	massa	-0.029898744
-2.4543252	elementum	-0.029898744
-2.5195935	in.	-0.029898744
-2.5195935	Proin	-0.029898744
-2.4543252	vehicula	-0.029898744
-1.9651878	id	-0.029898744
-2.4543252	aliquet.	-0.67288005
-1.8883673	at	-0.13819896
-2.17772	orci	-0.029898744
-2.17772	vestibulum	-0.029898744
-2.3424401	congue	-0.029898744
-1.7663976	ut	-0.029898744
-2.5195935	arcu.	-0.029898744
-2.4543252	Maecenas	-0.029898744
-2.5195935	hendrerit	-0.029898744
-2.3424401	sem	-0.029898744
-1.9651878	in	-0.029898744
-2.5195935	interdum	-0.029898744
-2.5195935	varius.	-0.029898744
-2.17772	augue	-0.029898744
-2.5195935	leo,	-0.029898744
-2.17772	sodales	-0.029898744
-2.5195935	dui	-0.029898744
-2.5195935	sed,	-0.029898744
-2.3424401	condimentum	-0.029898744
-2.4543252	nibh.	-0.029898744
-2.3424401	vitae	-0.029898744
-2.4543252	convallis	-0.029898744
-2.5195935	leo.	-0.029898744
-2.5195935	tempus	-0.029898744
-2.5195935	accumsan.	-0.029898744
-2.5195935	Nam	-0.029898744
-2.3424401	luctus	-0.029898744
-2.4543252	consequat	-0.029898744
-2.5195935	mauris,	-0.029898744
-1.7162392	a	-0.02989877
-2.17772	pulvinar	-0.029898744
-2.5195935	nulla	-0.029898744
-2.5195935	porttitor	-0.029898744
-2.5195935	amet.	-0.029898744
-2.4543252	Vivamus	-0.029898744
-2.17772	rhoncus	-0.029898744
-2.4543252	sed	-0.029898744
-2.4543252	arcu	-0.029898744
-2.4543252	quis	-0.029898744
-2.5195935	semper.	-0.029898744
-2.5195935	Etiam	-0.029898744
-2.3424401	elit	-0.029898744
-2.5195935	diam.	-0.029898744
-2.4543252	Donec	-0.029898744
-2.3424401	eleifend	-0.029898744
-2.17772	risus	-0.029898744
-2.3424401	est	-0.029898744
-2.4543252	faucibus	-0.029898744
-2.5195935	imperdiet.	-0.029898744
-2.5195935	ultrices,	-0.029898744
-2.3424401	neque	-0.029898744
-2.3424401	ac,	-0.029898744
-2.4543252	egestas	-0.029898744
-2.4543252	lorem.	-0.67288005
-2.5195935	rutrum	-0.029898744
-2.5195935	laoreet	-0.029898744
-2.5195935	venenatis.	-0.029898744
-2.5195935	Aenean	-0.029898744
-2.5195935	arcu,	-0.029898744
-2.17772	vel	-0.029898744
-2.4543252	lacus	-0.029898744
-2.3424401	ut,	-0.029898744
-2.3424401	lobortis	-0.029898744
-2.4543252	fringilla	-0.029898744
-2.3424401	nunc.	-0.06463994
-2.3424401	euismod	-0.029898744
-2.4543252	libero	-0.029898744
-2.5195935	lacinia	-0.029898744
-2.4543252	auctor	-0.029898744
-2.4543252	tincidunt.	-0.67288005
-2.5195935	Pellentesque	-0.029898744
-2.4543252	maximus	-0.029898744
-2.5195935	facilisis	-0.029898744
-2.5195935	pulvinar.	-0.029898744
-2.5195935	Cras	-0.029898744
-2.3424401	sollicitudin	-0.029898744
-2.4543252	ex	-0.029898744
-2.5195935	malesuada.	-0.029898744
-2.5195935	ligula	-0.029898744
-2.5195935	convallis.	-0.029898744
-2.5195935	Integer	-0.029898744
-2.5195935	mollis	-0.029898744
-2.3424401	turpis	-0.029898744
-2.5195935	tincidunt,	-0.029898744
-2.3424401	eu	-0.029898744
-2.3424401	metus	-0.029898744
-2.5195935	ornare.	-0.029898744
-2.5195935	maximus,	-0.029898744
-2.4543252	nisl	-0.029898744
-2.5195935	porttitor,	-0.029898744
-2.17772	aliquam	-0.029898744
-2.5195935	ex,	-0.029898744
-2.17772	felis	-0.029898744
-2.5195935	erat.	-0.029898744
-2.5195935	Ut	-0.029898744
-2.5195935	accumsan	-0.029898744
-2.5195935	odio,	-0.029898744
-2.4543252	ultricies	-0.029898744
-2.4543252	cursus	-0.029898744
-2.5195935	orci.	-0.029898744
-2.5195935	Duis	-0.029898744
-2.4543252	feugiat	-0.029898744
-2.5195935	ante	-0.029898744
-2.5195935	primis	-0.029898744
-2.3424401	ultrices	-0.029898744
-2.4543252	posuere	-0.029898744
-2.5195935	cubilia	-0.029898744
-2.5195935	curae;	-0.029898744
-2.4543252	Suspendisse	-0.029898744
-2.5195935	dictum	-0.029898744
-2.4543252	mi	-0.029898744
-2.3424401	pharetra	-0.029898744
-2.5195935	efficitur.	-0.029898744
-2.3424401	non	-0.029898744
-2.5195935	iaculis	-0.029898744
-2.4543252	lacus.	-0.67288005
-2.5195935	amet	-0.19041577
-2.5195935	urna	-0.029898744
-2.5195935	gravida.	-0.029898744
-2.5195935	Mauris	-0.029898744
-2.5195935	commodo,	-0.029898744
-2.5195935	et,	-0.029898744
-2.4543252	ex.	-0.67288005
-2.5195935	Phasellus	-0.029898744
-2.5195935	facilisis,	-0.029898744
-2.17772	finibus	-0.029898744
-2.5195935	hendrerit,	-0.029898744
-2.4543252	tortor	-0.029898744
-2.4543252	nibh	-0.029898744
-2.4543252	venenatis	-0.029898744
-2.5195935	urna,	-0.029898744
-2.5195935	pellentesque	-0.029898744
-2.5195935	leo	-0.029898744
-2.4543252	purus.	-0.67288005
-2.5195935	Aliquam	-0.029898744
-2.4543252	ornare	-0.029898744
-2.4543252	tristique	-0.029898744
-2.5195935	lectus,	-0.029898744
-2.5195935	fringilla.	-0.029898744
-2.5195935	sapien,	-0.029898744
-2.4543252	sagittis	-0.029898744
-2.3424401	lorem	-0.029898744
-2.5195935	erat	-0.029898744
-2.5195935	pellentesque,	-0.029898744
-2.3424401	ullamcorper	-0.029898744
-2.5195935	pretium,	-0.029898744
-2.4543252	tincidunt	-0.029898744
-2.4543252	porta	-0.029898744
-2.5195935	eleifend.	-0.029898744
-2.5195935	accumsan,	-0.029898744
-2.5195935	sodales,	-0.029898744
-2.17772	eros	-0.029898744
-2.17772	malesuada	-0.029898744
-2.5195935	neque,	-0.029898744
-2.5195935	semper	-0.029898744
-2.4543252	diam	-0.029898744
-2.4543252	dapibus	-0.029898744
-2.4543252	placerat	-0.029898744
-2.5195935	Nullam	-0.029898744
-2.4543252	nunc	-0.029898744
-2.5195935	posuere.	-0.029898744
-2.5195935	Fusce	-0.029898744
-2.5195935	justo	-0.029898744
-2.17772	sapien	-0.029898744
-2.5195935	fermentum.	-0.029898744
-2.5195935	erat,	-0.029898744
-2.5195935	suscipit	-0.029898744
-2.4543252	metus.	-0.67288005
-2.5195935	lectus	-0.029898744
-2.5195935	eros,	-0.029898744
-2.5195935	neque.	-0.029898744
-2.4543252	molestie	-0.029898744
-2.5195935	massa.	-0.029898744
-2.5195935	Nunc	-0.029898744
-2.5195935	sapien.	-0.029898744
-2.5195935	quam,	-0.029898744
-2.4543252	est.	-0.67288005
-2.5195935	dignissim	-0.029898744
-2.5195935	mi.	-0.029898744
-2.5195935	tellus,	-0.029898744
-2.4543252	id.	-0.67288005
-2.5195935	massa,	-0.029898744
-2.5195935	vel,	-0.029898744
-2.5195935	sem.	-0.029898744
-2.5195935	commodo	-0.029898744
-2.5195935	porta.	-0.029898744
-2.5195935	auctor.	-0.029898744
-2.4543252	nec	-0.029898744
-2.5195935	pharetra.	-0.029898744
-2.5195935	In	-0.029898744
-2.5195935	velit	-0.029898744
-2.5195935	Quisque	-0.029898744
-2.5195935	molestie,	-0.029898744
-2.5195935	risus.	-0.029898744
-2.5195935	diam,	-0.029898744
-2.5195935	dui.	-0.029898744
-2.5195935	odio	-0.029898744
-2.5195935	sollicitudin,	-0.029898744
-2.5195935	egestas.	-0.029898744
-2.5195935	elit,	-0.029898744
-2.5195935	mattis	-0.029898744

\2-grams:
-0.83240926	elit. </s>
-0.83240926	finibus. </s>
-0.09369358	aliquet. </s>
-0.83240926	varius. </s>
-0.94374883	nibh. </s>
-0.83240926	leo. </s>
-0.83240926	accumsan. </s>
-0.83240926	semper. </s>
-0.83240926	imperdiet. </s>
-0.09369358	lorem. </s>
-0.83240926	venenatis. </s>
-0.67230815	nunc. </s>
-0.09369358	tincidunt. </s>
-0.83240926	pulvinar. </s>
-0.83240926	malesuada. </s>
-0.83240926	convallis. </s>
-0.83240926	ornare. </s>
-0.83240926	erat. </s>
-0.83240926	orci. </s>
-0.83240926	efficitur. </s>
-0.09369358	lacus. </s>
-0.83240926	gravida. </s>
-0.09369358	ex. </s>
-0.09369358	purus. </s>
-0.83240926	fringilla. </s>
-0.83240926	eleifend. </s>
-0.83240926	posuere. </s>
-0.83240926	fermentum. </s>
-0.09369358	metus. </s>
-0.83240926	neque. </s>
-0.83240926	massa. </s>
-0.83240926	sapien. </s>
-0.09369358	est. </s>
-0.83240926	mi. </s>
-0.09369358	id. </s>
-0.83240926	sem. </s>
-0.83240926	porta. </s>
-0.83240926	auctor. </s>
-0.83240926	pharetra. </s>
-0.83240926	risus. </s>
-0.83240926	dui. </s>
-0.83240926	egestas. </s>
-2.4807377	<s> Lorem
-1.1501449	Lorem ipsum
-1.5780851	elit ipsum
-1.1501449	ante ipsum
-1.6020998	ipsum dolor
-1.104584	dolor sit
-1.5420763	augue sit
-1.104584	porttitor sit
-1.5420763	risus sit
-1.4653804	neque sit
-1.3435684	mi sit
-1.5420763	sapien sit
-1.9420857	sit amet,
-1.1589551	amet, consectetur
-1.1589551	consectetur adipiscing
-1.1589551	adipiscing elit.
-0.98067415	<s> Sed
-1.4371922	nibh. Sed
-1.9717839	Sed scelerisque
-1.4371922	Pellentesque scelerisque
-1.4426646	scelerisque nisi
-1.1560988	nisi ac
-1.4371922	vehicula ac
-0.10327378	ac enim
-1.9186703	at enim
-1.594222	enim viverra
-1.7009008	vestibulum viverra
-1.4426646	viverra dictum.
-1.1589551	dictum. Praesent
-1.1589551	Praesent volutpat
-1.1560988	volutpat pretium
-1.4371922	Suspendisse pretium
-1.4258885	pretium tellus
-1.9627452	et tellus
-1.1501449	lacinia tellus
-1.5180869	tellus eget
-1.5180869	congue eget
-1.6057439	felis eget
-1.1267673	Nunc eget
-1.1267673	diam, eget
-1.7924385	eget finibus.
-2.0053177	<s> Vestibulum
-1.6020998	Vestibulum imperdiet
-1.1589551	imperdiet magna
-1.1589551	magna dui,
-1.5963023	Sed et
-1.0732989	dui, et
-1.4612547	augue et
-1.3966644	luctus et
-1.3966644	turpis et
-1.2906818	mi et
-1.2906818	tristique et
-1.0732989	lectus, et
-1.2906818	diam et
-1.0732989	sollicitudin, et
-2.0029602	et bibendum
-1.1560988	mattis bibendum
-1.4371922	bibendum massa
-2.0029602	a massa
-1.4371922	massa elementum
-1.1560988	accumsan elementum
-1.4426646	elementum in.
-1.1589551	in. Proin
-1.1560988	Proin vehicula
-1.7009008	vel vehicula
-1.4909346	enim id
-1.5727444	sodales id
-1.4909346	Aenean id
-1.3627323	nisl id
-1.115534	urna, id
-1.3627323	sagittis id
-1.8426256	id aliquet.
-1.594222	pharetra aliquet.
-1.4653804	enim at
-1.4653804	Vestibulum at
-1.104584	ex, at
-1.5420763	felis at
-1.3435684	sagittis at
-1.104584	quam, at
-1.104584	Quisque at
-1.8435872	at orci
-1.4038001	faucibus orci
-1.5470507	eu orci
-1.6414585	aliquam orci
-1.8667212	Sed vestibulum
-1.6414585	orci vestibulum
-1.1382987	sed, vestibulum
-1.6414585	sapien vestibulum
-1.9342376	Sed congue
-1.6803755	vestibulum congue
-1.1501449	urna congue
-1.5332764	eget ut
-1.6312172	ut ut
-1.3076051	Maecenas ut
-1.3076051	Etiam ut
-1.4183837	ultrices ut
-1.4865601	lorem ut
-1.3076051	placerat ut
-1.4183837	nunc ut
-1.0834789	justo ut
-1.9908174	ut arcu.
-2.4391127	<s> Maecenas
-1.1560988	arcu. Maecenas
-1.4426646	Maecenas hendrerit
-1.1501449	hendrerit sem
-1.4258885	convallis sem
-1.1501449	semper sem
-1.3627323	bibendum in
-1.4909346	sem in
-1.115534	primis in
-1.115534	neque, in
-1.3627323	diam in
-1.4909346	Fusce in
-1.8566824	in interdum
-1.1589551	interdum varius.
-1.8667212	Sed augue
-1.5470507	congue augue
-1.6414585	pulvinar augue
-1.5470507	eu augue
-1.7109978	augue leo,
-1.8435872	at sodales
-1.1382987	leo, sodales
-1.5470507	Cras sodales
-1.4038001	placerat sodales
-1.8566824	id dui
-1.1589551	dui sed,
-1.8144324	id condimentum
-1.6803755	vestibulum condimentum
-1.1501449	eros, condimentum
-1.594222	condimentum nibh.
-1.7009008	malesuada nibh.
-1.9342376	Sed vitae
-1.6803755	risus vitae
-1.5780851	turpis vitae
-1.594222	vitae convallis
-2.0029602	a convallis
-1.4426646	convallis leo.
-2.0234442	et tempus
-1.1589551	tempus accumsan.
-1.4979577	<s> Nam
-1.6803755	orci luctus
-1.4258885	Nam luctus
-1.1501449	ultrices, luctus
-1.594222	luctus consequat
-1.1560988	vel, consequat
-1.4426646	consequat mauris,
-1.5371583	id a
-1.5963023	ut a
-1.0732989	mauris, a
-1.2906818	Etiam a
-1.4612547	Donec a
-1.2906818	lacus a
-1.3966644	Duis a
-1.3966644	Fusce a
-1.0732989	velit a
-1.0732989	elit, a
-1.8910071	et pulvinar
-1.8910071	a pulvinar
-1.5470507	ac, pulvinar
-1.1382987	commodo, pulvinar
-1.7109978	pulvinar nulla
-1.1589551	nulla porttitor
-1.9420857	sit amet.
-2.4391127	<s> Vivamus
-1.1560988	amet. Vivamus
-1.8910071	et rhoncus
-1.8667212	ut rhoncus
-1.4038001	Vivamus rhoncus
-1.5470507	eu rhoncus
-1.7009008	rhoncus sed
-1.1560988	leo sed
-2.0029602	et arcu
-1.4371922	sed arcu
-1.4371922	arcu quis
-1.7009008	lorem quis
-1.4426646	quis semper.
-1.4979577	<s> Etiam
-1.4258885	vehicula elit
-1.9627452	a elit
-1.1501449	porttitor, elit
-1.6020998	elit diam.
-1.9909395	<s> Donec
-1.1560988	diam. Donec
-1.4258885	quis eleifend
-1.5780851	elit eleifend
-1.6803755	Donec eleifend
-1.6414585	sodales risus
-1.5470507	eleifend risus
-1.5470507	Aenean risus
-1.4038001	venenatis risus
-1.5780851	vitae est
-1.4258885	Ut est
-1.5780851	ullamcorper est
-1.8426256	in faucibus
-1.594222	est faucibus
-1.4426646	faucibus imperdiet.
-1.4426646	massa ultrices,
-1.9342376	ut neque
-1.5780851	luctus neque
-1.6803755	finibus neque
-1.5780851	neque ac,
-1.5780851	metus ac,
-1.6803755	lorem ac,
-1.594222	ac, egestas
-1.1560988	arcu, egestas
-2.0029602	et lorem.
-1.4371922	egestas lorem.
-1.9908174	Sed rutrum
-1.1589551	rutrum laoreet
-1.1589551	laoreet venenatis.
-2.0053177	<s> Aenean
-1.7109978	risus arcu,
-1.6414585	Donec vel
-1.4038001	egestas vel
-1.1382987	ligula vel
-1.1382987	tellus, vel
-1.7009008	vel lacus
-1.1560988	facilisis lacus
-1.5780851	tellus ut,
-1.4258885	lacus ut,
-1.6803755	sapien ut,
-1.75576	eget lobortis
-1.8144324	id lobortis
-1.5780851	ut, lobortis
-1.594222	lobortis fringilla
-1.4371922	feugiat fringilla
-1.9627452	a nunc.
-1.4258885	fringilla nunc.
-1.4258885	tincidunt nunc.
-1.6803755	pulvinar euismod
-1.4258885	Vivamus euismod
-1.4258885	ex euismod
-1.594222	euismod libero
-1.7009008	Phasellus libero
-1.4426646	libero lacinia
-1.4371922	pretium auctor
-1.594222	tellus auctor
-1.9186703	at tincidunt.
-1.4371922	auctor tincidunt.
-1.4979577	<s> Pellentesque
-1.7009008	vel maximus
-1.4371922	Pellentesque maximus
-1.4426646	maximus facilisis
-2.0234442	a pulvinar.
-2.0053177	<s> Cras
-1.6803755	sodales sollicitudin
-1.6803755	vel sollicitudin
-1.5780851	Integer sollicitudin
-1.594222	sollicitudin ex
-1.7009008	eros ex
-1.6020998	euismod malesuada.
-1.4426646	scelerisque ligula
-1.4426646	maximus convallis.
-2.0053177	<s> Integer
-1.6020998	Integer mollis
-1.6803755	rhoncus turpis
-1.1501449	mollis turpis
-1.1501449	facilisis, turpis
-1.4426646	arcu tincidunt,
-1.4258885	Nam eu
-1.1501449	tincidunt, eu
-1.5780851	Aliquam eu
-1.6803755	rhoncus metus
-1.6803755	finibus metus
-1.1501449	pellentesque metus
-1.6020998	metus ornare.
-1.7109978	Donec maximus,
-1.1560988	maximus, nisl
-1.8076664	amet nisl
-1.6020998	condimentum porttitor,
-1.5470507	ipsum aliquam
-1.8667212	ut aliquam
-1.5470507	ac, aliquam
-1.1382987	Mauris aliquam
-1.7109978	aliquam ex,
-1.8667212	ut felis
-1.8910071	a felis
-1.6414585	risus felis
-1.4038001	fringilla felis
-1.7924385	eget erat.
-1.4979577	<s> Ut
-1.4426646	Ut accumsan
-1.4426646	elementum odio,
-1.9186703	at ultricies
-1.1560988	odio, ultricies
-1.4371922	ultricies cursus
-1.4371922	nibh cursus
-1.4426646	cursus orci.
-2.0053177	<s> Duis
-1.7802877	eget feugiat
-1.594222	Duis feugiat
-1.6020998	Vestibulum ante
-1.6020998	ipsum primis
-1.9627452	et ultrices
-1.5780851	nunc ultrices
-1.4258885	molestie ultrices
-1.594222	ultrices posuere
-1.1560988	et, posuere
-1.4426646	posuere cubilia
-1.1589551	cubilia curae;
-2.4391127	<s> Suspendisse
-1.1560988	curae; Suspendisse
-1.4426646	Suspendisse dictum
-1.594222	sollicitudin mi
-1.1560988	dictum mi
-1.9627452	et pharetra
-1.5780851	Integer pharetra
-1.4258885	molestie pharetra
-1.6020998	pharetra efficitur.
-1.5780851	condimentum non
-1.5780851	Cras non
-1.6803755	felis non
-1.6020998	non iaculis
-1.594222	euismod lacus.
-1.1560988	iaculis lacus.
-0.4597896	sit amet
-1.8165759	amet urna
-1.6020998	congue gravida.
-2.4807377	<s> Mauris
-1.7109978	orci commodo,
-1.7109978	augue et,
-2.0029602	a ex.
-1.4371922	posuere ex.
-1.5414191	<s> Phasellus
-1.7109978	Phasellus facilisis,
-1.5470507	vitae finibus
-1.5470507	ut, finibus
-1.6414585	Phasellus finibus
-1.1382987	molestie, finibus
-1.7109978	finibus hendrerit,
-1.594222	non tortor
-1.1560988	hendrerit, tortor
-1.7009008	pulvinar nibh
-1.4371922	tortor nibh
-1.9717839	Sed venenatis
-1.4371922	nibh venenatis
-1.4426646	venenatis urna,
-1.8566824	id pellentesque
-1.6020998	metus leo
-1.9717839	ut purus.
-1.4371922	sed purus.
-2.0053177	<s> Aliquam
-1.594222	Cras ornare
-1.594222	Aliquam ornare
-1.4371922	ornare tristique
-1.1560988	erat, tristique
-1.4426646	tristique lectus,
-1.4426646	cursus fringilla.
-1.4426646	libero sapien,
-1.594222	ultrices sagittis
-1.1560988	sapien, sagittis
-0.6414183	at lorem
-1.1501449	accumsan, lorem
-1.4258885	nec lorem
-2.0234442	et erat
-1.1589551	erat pellentesque,
-1.5780851	ut, ullamcorper
-1.1501449	pellentesque, ullamcorper
-1.1501449	In ullamcorper
-1.6020998	est pretium,
-1.7009008	felis tincidunt
-1.1560988	pretium, tincidunt
-1.4371922	nisl porta
-1.1560988	Nullam porta
-1.4426646	porta eleifend.
-1.7109978	Phasellus accumsan,
-1.6020998	eleifend sodales,
-1.8667212	Sed eros
-1.8910071	a eros
-1.5470507	pharetra eros
-1.1382987	sodales, eros
-1.4038001	consequat malesuada
-1.4038001	ex malesuada
-1.5470507	ullamcorper malesuada
-1.1382987	commodo malesuada
-1.7109978	malesuada neque,
-1.8566824	in semper
-1.594222	sem diam
-1.4371922	auctor diam
-1.594222	sem dapibus
-1.4371922	tortor dapibus
-1.4371922	dapibus placerat
-1.1560988	massa, placerat
-2.4807377	<s> Nullam
-0.4985125	amet nunc
-1.4371922	porta nunc
-1.7109978	rhoncus posuere.
-2.0053177	<s> Fusce
-2.0234442	a justo
-1.8667212	ut sapien
-1.7622588	in sapien
-1.6414585	sodales sapien
-1.5470507	non sapien
-1.7109978	vestibulum fermentum.
-1.6020998	est erat,
-1.7109978	finibus suscipit
-1.594222	neque metus.
-1.1560988	suscipit metus.
-1.6020998	Duis lectus
-1.1589551	lectus eros,
-1.7109978	aliquam neque.
-1.594222	Aenean molestie
-1.7009008	eros molestie
-1.7109978	orci massa.
-2.4807377	<s> Nunc
-1.4426646	feugiat sapien.
-1.6020998	lobortis quam,
-1.4371922	ultricies est.
-1.4371922	nec est.
-1.4426646	ornare dignissim
-1.1589551	dignissim mi.
-1.7109978	eros tellus,
-1.594222	eleifend id.
-1.4371922	dapibus id.
-1.7109978	eros massa,
-1.7109978	sapien vel,
-1.7109978	malesuada sem.
-1.6020998	Aliquam commodo
-1.7109978	malesuada porta.
-1.8566824	in auctor.
-1.8426256	in nec
-1.594222	Fusce nec
-1.4426646	tincidunt pharetra.
-2.4807377	<s> In
-1.6020998	ullamcorper velit
-2.4807377	<s> Quisque
-1.7109978	lorem molestie,
-1.7109978	aliquam risus.
-1.6020998	sollicitudin diam,
-1.6020998	lobortis dui.
-1.8165759	amet odio
-1.1589551	odio sollicitudin,
-1.6020998	turpis egestas.
-1.4426646	viverra elit,
-1.6020998	nunc mattis

\end\
